-5.925475433468818665e-02
-6.657347083091735840e-02
-1.470832712948322296e-02
-6.790128350257873535e-02
-9.165869653224945068e-02
-7.267798297107219696e-03
-6.574447453022003174e-02
4.190419986844062805e-02
6.143830344080924988e-02
7.276870310306549072e-02
-5.367412790656089783e-02
6.054104492068290710e-02
-3.060397505760192871e-02
-1.225952524691820145e-02
-8.487981557846069336e-02
-8.956578373908996582e-02
2.737742848694324493e-02
5.277741327881813049e-02
-3.850720450282096863e-02
4.771115258336067200e-02
2.244903333485126495e-02
4.122057929635047913e-02
5.205120518803596497e-02
-1.663816161453723907e-02
-1.726843230426311493e-02
2.063145674765110016e-02
-8.403781056404113770e-02
2.539063058793544769e-02
-7.315905392169952393e-02
-3.169373050332069397e-02
-5.463762208819389343e-02
-3.758006915450096130e-02
-1.805138029158115387e-02
2.768969722092151642e-02
5.552320554852485657e-02
2.137579210102558136e-02
-8.113004267215728760e-02
-2.527074329555034637e-02
-6.829780340194702148e-02
-1.262657996267080307e-02
5.591074004769325256e-02
-6.876818835735321045e-02
5.709622427821159363e-02
7.835474610328674316e-02
5.686771124601364136e-03
-4.177016392350196838e-02
3.565256670117378235e-02
-2.530763857066631317e-02
1.541422959417104721e-02
-8.808429539203643799e-02
5.417256429791450500e-02
4.791905358433723450e-02
-7.297267019748687744e-02
3.745155408978462219e-02
-6.288144737482070923e-02
-6.022954359650611877e-02
3.912793472409248352e-02
-7.370498776435852051e-02
4.925473406910896301e-02
-4.881777241826057434e-02
7.553818821907043457e-02
-8.781394362449645996e-02
3.248857334256172180e-02
-2.611747197806835175e-02
7.175235450267791748e-02
2.035464532673358917e-02
6.021446362137794495e-02
-1.919234730303287506e-02
-2.413573209196329117e-03
1.606716588139533997e-02
7.170949876308441162e-02
7.689681649208068848e-02
2.004112349823117256e-03
-6.370125338435173035e-03
-3.072981163859367371e-02
5.789520964026451111e-02
-7.869939506053924561e-02
6.811800599098205566e-02
5.251615121960639954e-02
-1.035518292337656021e-02
-7.022500038146972656e-02
1.980004645884037018e-02
-4.108242318034172058e-02
6.873685121536254883e-02
-8.230960369110107422e-02
1.292014215141534805e-02
1.722137816250324249e-02
5.511109903454780579e-02
-3.103752434253692627e-02
2.348472364246845245e-02
-4.936509206891059875e-02
-1.027670409530401230e-02
6.561923027038574219e-02
-5.311321583576500416e-04
6.968447938561439514e-03
-8.579697459936141968e-02
4.449677839875221252e-02
-3.880969807505607605e-02
4.665029421448707581e-02
5.105723813176155090e-02
-4.733830317854881287e-02
-6.010797992348670959e-02
-2.237476222217082977e-02
7.837972044944763184e-02
7.161213457584381104e-02
7.191014289855957031e-02
4.723993316292762756e-02
7.179468870162963867e-02
-7.294283807277679443e-02
7.928355038166046143e-02
3.878677263855934143e-02
-7.627449929714202881e-02
6.749443709850311279e-02
-6.992121040821075439e-02
-3.923966363072395325e-02
1.895035384222865105e-03
-3.224311862140893936e-03
-1.702926121652126312e-02
7.323098182678222656e-02
1.559326425194740295e-02
2.027904428541660309e-02
-3.425622358918190002e-03
-8.103469014167785645e-02
4.137799516320228577e-02
-9.255544841289520264e-02
4.114343598484992981e-02
5.477743223309516907e-02
5.910478159785270691e-02
-7.471475750207901001e-03
-5.309378728270530701e-02
-1.694825850427150726e-02
7.366489619016647339e-03
-5.068738013505935669e-02
-3.735040500760078430e-02
5.338713526725769043e-03
2.848841063678264618e-02
6.971468031406402588e-02
-4.922566935420036316e-02
-4.455488547682762146e-02
-6.320984661579132080e-02
-9.010244905948638916e-02
-8.701810240745544434e-02
-1.194761414080858231e-02
3.322203829884529114e-02
1.139056030660867691e-02
3.156825155019760132e-02
-6.293525919318199158e-03
-4.883096739649772644e-02
3.241995722055435181e-02
-1.477928645908832550e-02
-8.078058809041976929e-02
-1.351888477802276611e-01
-8.503118902444839478e-02
-3.799136262387037277e-03
-3.297743573784828186e-02
-4.386000707745552063e-02
2.295679040253162384e-02
-5.911659821867942810e-02
6.725290417671203613e-02
-2.783815748989582062e-02
4.698172956705093384e-02
5.767788365483283997e-02
4.492341354489326477e-02
1.707428134977817535e-02
-7.831360399723052979e-02
3.342809155583381653e-02
4.107933491468429565e-03
7.925443351268768311e-02
1.381004322320222855e-02
6.921380758285522461e-02
7.077120244503021240e-02
5.746958032250404358e-02
-2.010382711887359619e-03
3.161022439599037170e-02
4.202984645962715149e-02
4.359434917569160461e-02
-5.310945957899093628e-02
-1.240807175636291504e-01
-2.327404022216796875e-01
-3.714641630649566650e-01
-1.810225695371627808e-01
-2.078107371926307678e-02
-9.168764948844909668e-02
-8.404763042926788330e-02
-4.887763783335685730e-02
9.237992577254772186e-03
-6.219309940934181213e-02
-1.052370369434356689e-01
-5.182171612977981567e-02
-3.097784891724586487e-02
6.246292591094970703e-02
2.939288504421710968e-02
1.382895279675722122e-02
-6.527522206306457520e-02
4.987883940339088440e-02
-5.953698232769966125e-02
-7.725292444229125977e-02
6.049520149827003479e-02
4.662542417645454407e-02
7.702971994876861572e-02
2.263570763170719147e-02
7.614478468894958496e-02
2.479373104870319366e-02
4.373897984623908997e-02
-5.670738406479358673e-03
-1.638241857290267944e-01
-4.454689919948577881e-01
-5.580270290374755859e-01
-3.983929157257080078e-01
-2.655070126056671143e-01
-1.456877291202545166e-01
-7.598984986543655396e-03
4.251447692513465881e-02
6.235282123088836670e-02
1.505608111619949341e-02
1.324385870248079300e-02
-8.587767928838729858e-02
-8.396257460117340088e-02
-5.283028259873390198e-02
5.382366850972175598e-02
-6.224793568253517151e-02
-5.288793519139289856e-02
-2.527412585914134979e-02
1.016851235181093216e-02
4.623933508992195129e-02
-6.291787326335906982e-02
5.771333351731300354e-02
4.210557416081428528e-02
4.969507828354835510e-02
-5.324473977088928223e-02
-1.403756290674209595e-01
-1.144069060683250427e-01
-1.412152647972106934e-01
-2.352777272462844849e-01
-3.148687183856964111e-01
-6.445868015289306641e-01
-5.893760323524475098e-01
-4.824473857879638672e-01
-2.076604962348937988e-01
9.040411561727523804e-02
-1.153958402574062347e-02
5.856604501605033875e-02
-3.665991127490997314e-02
-2.381317317485809326e-02
-8.619017153978347778e-02
1.831478811800479889e-02
-6.337835639715194702e-02
-1.484058238565921783e-02
-3.977850452065467834e-02
-6.878618896007537842e-02
-1.801158674061298370e-02
-5.766131356358528137e-02
1.300916168838739395e-02
-1.399786490947008133e-02
-7.556562125682830811e-02
8.874642662703990936e-03
2.394085563719272614e-02
-8.277575671672821045e-02
-1.849859505891799927e-01
-7.223796844482421875e-02
5.205551534891128540e-02
-7.470487058162689209e-02
-2.001795768737792969e-01
-2.838362455368041992e-01
-3.869816064834594727e-01
-3.189944624900817871e-01
5.082468315958976746e-02
2.003034651279449463e-01
1.969423443078994751e-01
-4.373924061655998230e-02
-1.147308722138404846e-01
-8.942378312349319458e-02
7.828053832054138184e-02
-4.763962700963020325e-02
1.047712843865156174e-02
-8.512115478515625000e-02
-9.240868687629699707e-02
6.518906354904174805e-02
4.451434686779975891e-02
-3.329853340983390808e-02
-5.236506089568138123e-02
6.261742673814296722e-04
-6.647339463233947754e-02
-7.060858421027660370e-03
-4.450391605496406555e-02
7.060971856117248535e-02
-1.100181117653846741e-01
-1.643008738756179810e-01
8.323749899864196777e-02
-6.526743620634078979e-02
-1.065251156687736511e-01
9.051858633756637573e-02
2.031411081552505493e-01
2.386607229709625244e-01
2.981828153133392334e-01
4.043127596378326416e-01
3.186495304107666016e-01
1.325806379318237305e-01
3.154230862855911255e-02
7.275231182575225830e-03
-4.373653978109359741e-02
5.463241040706634521e-02
8.403820917010307312e-03
6.691496074199676514e-02
-5.553829297423362732e-02
4.476754739880561829e-02
-1.711745373904705048e-02
-1.390533614903688431e-02
-5.727191455662250519e-03
-6.683874130249023438e-02
7.164016366004943848e-02
1.050816755741834641e-02
4.615393653512001038e-02
-7.049600780010223389e-02
-1.348576545715332031e-01
-4.449250549077987671e-02
1.167841181159019470e-01
-5.747853592038154602e-02
7.486011087894439697e-02
3.224088549613952637e-01
3.940947353839874268e-01
4.153552949428558350e-01
-5.214335862547159195e-03
6.905712187290191650e-02
2.917864620685577393e-01
6.146502122282981873e-02
-9.612046182155609131e-02
-3.943658992648124695e-02
-5.977911874651908875e-02
-6.962120532989501953e-02
-8.627055212855339050e-03
-5.307350680232048035e-02
-4.543821141123771667e-02
3.402763977646827698e-02
8.015796542167663574e-02
5.147415772080421448e-02
2.870946563780307770e-02
2.609645761549472809e-02
7.796093821525573730e-02
3.197732940316200256e-02
6.205249205231666565e-02
2.373491600155830383e-02
3.758424520492553711e-02
9.544873237609863281e-02
1.246934309601783752e-01
-3.988958150148391724e-02
8.834252506494522095e-02
-1.089086174033582211e-03
1.080134138464927673e-01
2.544279396533966064e-01
-7.704680413007736206e-02
3.991897031664848328e-02
6.481873244047164917e-02
3.151655429974198341e-03
-1.542817205190658569e-01
2.099321037530899048e-02
-7.480031996965408325e-02
1.590291410684585571e-01
1.624738723039627075e-01
-3.891352564096450806e-02
1.794097758829593658e-02
-3.883800283074378967e-02
-6.383068859577178955e-02
2.272693999111652374e-02
2.445807494223117828e-02
-8.897945284843444824e-02
5.196023359894752502e-02
-6.750638782978057861e-02
-2.840330265462398529e-02
8.819230645895004272e-02
1.483217477798461914e-01
1.668715327978134155e-01
1.973194628953933716e-01
1.286055296659469604e-01
1.408702731132507324e-01
-1.966307908296585083e-01
-2.153760343790054321e-01
1.876062601804733276e-01
-7.855834066867828369e-02
-6.793474406003952026e-02
7.842199504375457764e-02
-9.441046416759490967e-02
-1.380976289510726929e-01
-2.676747180521488190e-02
2.086472362279891968e-01
1.160680502653121948e-01
-1.847285078838467598e-03
-6.456735730171203613e-02
-1.590084098279476166e-02
-1.640242757275700569e-03
7.649108767509460449e-02
-8.209651708602905273e-02
-3.348841145634651184e-02
5.912746116518974304e-02
-1.601140759885311127e-02
-5.979542806744575500e-02
-8.487519621849060059e-02
-2.733771875500679016e-02
1.412826925516128540e-01
1.870157122611999512e-01
4.087898433208465576e-01
3.764161169528961182e-01
6.505353748798370361e-02
-2.505538463592529297e-01
-1.062282267957925797e-02
8.294510096311569214e-02
-7.462200522422790527e-02
-3.240974619984626770e-02
-5.183110386133193970e-02
-8.585726469755172729e-02
-9.240449219942092896e-02
1.153118629008531570e-02
2.048533856868743896e-01
1.970636397600173950e-01
-5.282372608780860901e-02
2.080076560378074646e-02
7.633246481418609619e-02
3.778751567006111145e-02
-6.907060742378234863e-02
3.013023175299167633e-02
-3.405642136931419373e-02
-1.301475707441568375e-02
-5.339855328202247620e-02
-1.620129309594631195e-02
-7.579858601093292236e-02
1.095186248421669006e-01
2.564418613910675049e-01
2.430674135684967041e-01
3.786905705928802490e-01
3.828934431076049805e-01
2.430821061134338379e-01
7.551149278879165649e-02
2.167014330625534058e-01
2.854492366313934326e-01
1.829913407564163208e-01
-9.667553752660751343e-02
-2.074806950986385345e-02
1.005102545022964478e-01
-1.939659714698791504e-01
-3.010208904743194580e-02
2.901401370763778687e-02
6.639881525188684464e-03
-1.049571484327316284e-01
-8.397613465785980225e-02
-9.384076111018657684e-03
6.243665516376495361e-02
-4.764862358570098877e-03
7.564400136470794678e-02
-8.152793347835540771e-02
-8.165831863880157471e-02
-2.590196393430233002e-02
4.168154671788215637e-02
5.659402534365653992e-02
2.321784943342208862e-02
2.991529405117034912e-01
9.767000377178192139e-02
2.146842777729034424e-01
2.262273132801055908e-01
5.787799358367919922e-01
5.027327537536621094e-01
3.141086399555206299e-01
1.690125316381454468e-01
2.350892722606658936e-01
3.085171282291412354e-01
4.120427370071411133e-01
1.497260034084320068e-01
-1.518878191709518433e-01
5.930181592702865601e-02
-4.234146326780319214e-02
4.671051632612943649e-03
3.300531208515167236e-02
5.443720147013664246e-02
1.696612127125263214e-02
3.464603796601295471e-02
-7.848367094993591309e-02
-5.578232929110527039e-02
-8.816593885421752930e-02
-5.567817017436027527e-03
-6.627866625785827637e-02
1.477038208395242691e-02
-5.127129331231117249e-02
1.084257364273071289e-01
2.846895158290863037e-01
4.616017267107963562e-02
-3.564369305968284607e-02
-1.660153642296791077e-02
3.591639101505279541e-01
5.782939866185188293e-02
4.011671990156173706e-02
-1.359591931104660034e-01
5.750834345817565918e-01
5.641087889671325684e-01
6.604196429252624512e-01
1.418795734643936157e-01
-1.870016939938068390e-02
1.822592318058013916e-01
7.503511756658554077e-02
-7.313111424446105957e-02
-3.586856275796890259e-02
6.298910826444625854e-02
-8.951443433761596680e-02
-1.123726088553667068e-02
-2.582634054124355316e-02
4.182149842381477356e-02
3.544694557785987854e-02
-2.985596470534801483e-02
-7.353179156780242920e-02
-3.459436818957328796e-02
-8.785299956798553467e-02
2.699872665107250214e-02
2.031459808349609375e-01
2.288328558206558228e-01
8.107183873653411865e-02
-8.371371775865554810e-03
2.294386178255081177e-01
-7.735597342252731323e-02
1.188201382756233215e-01
-2.631324529647827148e-01
1.015290841460227966e-01
2.634325325489044189e-01
4.817678406834602356e-02
6.887550652027130127e-02
1.796635836362838745e-01
3.014680147171020508e-01
6.918939203023910522e-02
-7.734014838933944702e-02
7.437328994274139404e-02
7.878223061561584473e-02
-4.985255375504493713e-02
4.081809893250465393e-02
3.082055039703845978e-02
6.373035907745361328e-02
-6.606005132198333740e-02
-1.964220590889453888e-02
5.073847249150276184e-02
-1.814228249713778496e-03
-1.725054718554019928e-02
-4.609758779406547546e-02
9.137812256813049316e-02
3.047518134117126465e-01
1.188508942723274231e-01
7.589498907327651978e-02
4.372933879494667053e-02
3.406469151377677917e-02
9.649883210659027100e-02
-3.389174342155456543e-01
-8.183579146862030029e-02
-7.273415476083755493e-02
1.044343635439872742e-01
1.993154734373092651e-02
8.376714587211608887e-02
1.351656466722488403e-01
1.073151901364326477e-01
-2.085368148982524872e-02
-7.130312919616699219e-02
-3.642341587692499161e-03
-2.445097081363201141e-02
1.556253433227539062e-02
-7.451876997947692871e-02
-5.975034087896347046e-03
6.179995462298393250e-02
1.733714528381824493e-02
3.068117238581180573e-02
-4.288978502154350281e-02
6.115462258458137512e-02
3.054630942642688751e-02
-2.961460128426551819e-02
1.034721508622169495e-01
-3.973261453211307526e-03
-9.831217676401138306e-02
-7.363466918468475342e-02
-3.016138076782226562e-01
-5.310709476470947266e-01
-5.113107562065124512e-01
-2.646055221557617188e-01
1.077195629477500916e-01
2.904252707958221436e-01
2.361088395118713379e-01
1.126087084412574768e-01
9.163511544466018677e-02
1.094729453325271606e-01
5.280884355306625366e-02
3.146230056881904602e-02
-6.761531531810760498e-02
-5.582856759428977966e-02
-6.987470202147960663e-03
-5.156615749001502991e-02
-5.810477212071418762e-02
5.706411227583885193e-02
4.633340984582901001e-03
-5.734254606068134308e-03
-8.867101371288299561e-02
-2.467377297580242157e-02
6.343065202236175537e-02
-4.107035696506500244e-03
-7.938594371080398560e-02
-1.003900989890098572e-01
3.405496105551719666e-02
-5.410842597484588623e-03
-2.994654476642608643e-01
-4.541134536266326904e-01
-3.603475689888000488e-01
-2.171141952276229858e-01
1.730638593435287476e-01
2.135521322488784790e-01
1.847170107066631317e-02
1.207509785890579224e-01
3.833346068859100342e-02
-3.190233930945396423e-02
-3.905927389860153198e-02
-7.724113762378692627e-02
-7.590410113334655762e-02
-4.192230477929115295e-02
-8.337637782096862793e-02
-8.617840707302093506e-02
8.198964409530162811e-03
2.298709936439990997e-02
3.509030118584632874e-02
4.848136380314826965e-02
-9.362135827541351318e-02
5.963813140988349915e-02
-2.751843445003032684e-02
2.816741727292537689e-02
-8.360024541616439819e-02
-1.412024646997451782e-01
-2.199907228350639343e-02
-1.130758449435234070e-01
-1.110113263130187988e-01
-2.613924741744995117e-01
-1.229158043861389160e-01
-1.047388315200805664e-01
5.672207474708557129e-02
1.414638608694076538e-01
8.381029218435287476e-02
-1.362510584294795990e-02
1.326953992247581482e-02
5.438846722245216370e-02
4.901412501931190491e-02
-1.904468424618244171e-02
-5.636985972523689270e-02
-8.445572853088378906e-02
6.592115759849548340e-02
4.647408798336982727e-02
-4.745871946215629578e-02
4.313469305634498596e-02
-3.232150152325630188e-02
4.121449962258338928e-02
-1.407215464860200882e-02
-6.010143831372261047e-02
-5.264189466834068298e-02
-3.877134528011083603e-03
-3.369754180312156677e-02
-1.417553573846817017e-01
-2.377246739342808723e-03
-1.452979892492294312e-01
-1.403093934059143066e-01
-5.680834874510765076e-02
-1.985584571957588196e-02
6.684362143278121948e-02
1.758397743105888367e-02
9.977113455533981323e-02
-6.289361417293548584e-02
3.714870288968086243e-02
-2.806650660932064056e-02
-2.428847365081310272e-03
6.632472574710845947e-02
-6.384058296680450439e-02
-2.736648079007863998e-03
-6.668847799301147461e-02
1.891447044909000397e-02
2.266145776957273483e-03
4.998539760708808899e-02
-3.848321363329887390e-02
3.144918754696846008e-02
4.563409835100173950e-03
-2.794709615409374237e-02
6.966011598706245422e-03
-2.400629036128520966e-02
-6.485223770141601562e-02
-2.417433075606822968e-02
5.424759164452552795e-02
5.265663936734199524e-02
-4.950001463294029236e-02
-2.753137843683362007e-03
-2.386231347918510437e-02
4.771854355931282043e-02
2.571233920753002167e-02
-6.858517229557037354e-02
7.944969832897186279e-02
-5.049556866288185120e-02
-1.390271354466676712e-02
2.432317472994327545e-02
2.544493041932582855e-02
2.686999551951885223e-02
1.920155622065067291e-02
-5.370518937706947327e-02
-1.454914826899766922e-02
-5.222868546843528748e-02
-1.180927734822034836e-02
-8.828656375408172607e-02
1.455281581729650497e-02
6.874282658100128174e-02
2.700084634125232697e-02
-2.695252187550067902e-03
7.087661325931549072e-02
1.037055719643831253e-02
-9.401750564575195312e-02
-9.187217056751251221e-02
-2.402452193200588226e-02
7.107529044151306152e-02
-8.664490282535552979e-02
-8.584707975387573242e-02
-1.247759442776441574e-02
-3.853367641568183899e-02
-6.313049793243408203e-02
-6.303767114877700806e-02
-4.244949296116828918e-02
-1.986542250961065292e-03
2.632228471338748932e-02
-1.333175133913755417e-02
-8.829833567142486572e-02
1.200759131461381912e-02
3.481647744774818420e-02
6.727245450019836426e-02
6.830246746540069580e-02
7.352221012115478516e-02
5.084096267819404602e-02
4.497354105114936829e-02
2.025828696787357330e-02
6.736588478088378906e-02
4.370119422674179077e-03
-8.089712820947170258e-03
-5.616312846541404724e-02
-8.088483475148677826e-03
2.781143225729465485e-02
1.809662021696567535e-02
-8.532692492008209229e-02
6.618414819240570068e-02
-5.581718310713768005e-02
3.000553883612155914e-02
-7.411198318004608154e-02
6.855711340904235840e-02
1.770571060478687286e-02
7.963788509368896484e-02
6.319870054721832275e-02
1.708585210144519806e-02
-6.521257758140563965e-02
-3.747370559722185135e-03
-4.392008110880851746e-02
4.337720945477485657e-02
-9.275901317596435547e-02
-2.080480568110942841e-02
-5.290941335260868073e-03
-8.749809861183166504e-02
4.853088036179542542e-02
-5.859199538826942444e-02
2.166877873241901398e-02
-9.804782457649707794e-03
1.574222743511199951e-02
4.788165166974067688e-02
6.341990828514099121e-02
-6.061467900872230530e-02
-8.707012236118316650e-02
-1.532190758734941483e-02
3.884545341134071350e-02
-5.919230356812477112e-02
-8.707346022129058838e-02
7.173897325992584229e-02
5.817666277289390564e-02
6.043606624007225037e-02
-7.301355898380279541e-02
7.781213521957397461e-02
-3.325314447283744812e-02
-8.737678639590740204e-03
6.227431073784828186e-02
1.607419177889823914e-02
2.946991240605711937e-03
6.604610383510589600e-02
3.790042176842689514e-02
-5.899470672011375427e-02
4.527536407113075256e-02
-4.436462000012397766e-02
3.825112059712409973e-02
-4.126793518662452698e-02
